FANN_FLO_2.1
num_layers=4
learning_rate=0.700000
connection_rate=1.000000
network_type=0
learning_momentum=0.000000
training_algorithm=1
train_error_function=1
train_stop_function=0
cascade_output_change_fraction=0.010000
quickprop_decay=-0.000100
quickprop_mu=1.750000
rprop_increase_factor=1.200000
rprop_decrease_factor=0.500000
rprop_delta_min=0.000000
rprop_delta_max=50.000000
rprop_delta_zero=0.100000
cascade_output_stagnation_epochs=12
cascade_candidate_change_fraction=0.010000
cascade_candidate_stagnation_epochs=12
cascade_max_out_epochs=150
cascade_min_out_epochs=50
cascade_max_cand_epochs=150
cascade_min_cand_epochs=50
cascade_num_candidate_groups=2
bit_fail_limit=3.49999994039535522461e-01
cascade_candidate_limit=1.00000000000000000000e+03
cascade_weight_multiplier=4.00000005960464477539e-01
cascade_activation_functions_count=10
cascade_activation_functions=3 5 7 8 10 11 14 15 16 17 
cascade_activation_steepnesses_count=4
cascade_activation_steepnesses=2.50000000000000000000e-01 5.00000000000000000000e-01 7.50000000000000000000e-01 1.00000000000000000000e+00 
layer_sizes=7 7 10 2 
scale_included=0
neurons (num_inputs, activation_function, activation_steepness)=(0, 0, 0.00000000000000000000e+00) (0, 0, 0.00000000000000000000e+00) (0, 0, 0.00000000000000000000e+00) (0, 0, 0.00000000000000000000e+00) (0, 0, 0.00000000000000000000e+00) (0, 0, 0.00000000000000000000e+00) (0, 0, 0.00000000000000000000e+00) (7, 5, 5.00000000000000000000e-01) (7, 5, 5.00000000000000000000e-01) (7, 5, 5.00000000000000000000e-01) (7, 5, 5.00000000000000000000e-01) (7, 5, 5.00000000000000000000e-01) (7, 5, 5.00000000000000000000e-01) (0, 0, 0.00000000000000000000e+00) (7, 5, 5.00000000000000000000e-01) (7, 5, 5.00000000000000000000e-01) (7, 5, 5.00000000000000000000e-01) (7, 5, 5.00000000000000000000e-01) (7, 5, 5.00000000000000000000e-01) (7, 5, 5.00000000000000000000e-01) (7, 5, 5.00000000000000000000e-01) (7, 5, 5.00000000000000000000e-01) (7, 5, 5.00000000000000000000e-01) (0, 0, 0.00000000000000000000e+00) (10, 5, 5.00000000000000000000e-01) (0, 0, 0.00000000000000000000e+00) 
connections (connected_to_neuron, weight)=(0, 1.64789095520973205566e-01) (1, -1.26836493611335754395e-01) (2, -1.37341368198394775391e+00) (3, -2.36181244254112243652e-01) (4, -1.70201802253723144531e+00) (5, -1.04559242725372314453e+00) (6, 2.09849190711975097656e+00) (0, 5.82229757308959960938e+00) (1, 1.20271797180175781250e+01) (2, 1.17240357398986816406e+00) (3, 1.07581996917724609375e+00) (4, 2.94193935394287109375e+00) (5, 2.26987028121948242188e+00) (6, 1.31202951073646545410e-01) (0, 8.69584941864013671875e+00) (1, 1.87106456756591796875e+01) (2, 2.08799839019775390625e+00) (3, 6.63672208786010742188e-01) (4, 3.77132964134216308594e+00) (5, 1.28898823261260986328e+00) (6, -5.90906560420989990234e-01) (0, 2.53035950660705566406e+00) (1, 6.62584638595581054688e+00) (2, 2.74836778640747070312e-01) (3, -6.78351283073425292969e-01) (4, -1.36595323681831359863e-01) (5, -1.00176148116588592529e-01) (6, 1.15484297275543212891e+00) (0, -1.11451089382171630859e+00) (1, 2.03623950481414794922e-01) (2, -9.70005631446838378906e-01) (3, 2.41668686270713806152e-01) (4, -1.69208168983459472656e+00) (5, 1.15204262733459472656e+00) (6, -1.63370668888092041016e-02) (0, 2.85333245992660522461e-01) (1, 2.32084080576896667480e-01) (2, 4.60640728473663330078e-01) (3, 5.38510560989379882812e-01) (4, 1.54857051372528076172e+00) (5, 6.65851116180419921875e-01) (6, -8.36529493331909179688e-01) (7, -1.68006002902984619141e+00) (8, -4.20152008533477783203e-01) (9, -6.08316779136657714844e-01) (10, -3.30414295196533203125e-01) (11, 4.09292817115783691406e-01) (12, -3.20816457271575927734e-01) (13, -2.15409934520721435547e-01) (7, -4.99628931283950805664e-01) (8, -2.57397651672363281250e-01) (9, -1.52581557631492614746e-01) (10, 1.72364600002765655518e-02) (11, 3.19841027259826660156e-01) (12, 1.09734773635864257812e-01) (13, 1.32144197821617126465e-01) (7, 1.18647299706935882568e-01) (8, 1.48674055933952331543e-01) (9, 2.66255408525466918945e-01) (10, 7.33943507075309753418e-02) (11, -1.17228135466575622559e-01) (12, -8.16199649125337600708e-03) (13, -1.00999362766742706299e-01) (7, -2.44816517829895019531e+00) (8, -1.22540719807147979736e-01) (9, -4.52004551887512207031e-01) (10, -6.96283672004938125610e-03) (11, 8.90817284584045410156e-01) (12, 5.24492144584655761719e-01) (13, 1.70429691672325134277e-01) (7, 4.46684032678604125977e-01) (8, 1.32295772433280944824e-01) (9, 2.37556189298629760742e-01) (10, 6.19756393134593963623e-02) (11, -1.80224269628524780273e-01) (12, 8.58498439192771911621e-02) (13, -5.51977977156639099121e-02) (7, -8.90901684761047363281e-02) (8, -2.39122256636619567871e-01) (9, -1.81713178753852844238e-01) (10, -1.13673307001590728760e-01) (11, -9.29852277040481567383e-02) (12, 1.50469124317169189453e-01) (13, -9.73456725478172302246e-03) (7, 6.21367573738098144531e-01) (8, -1.89651653170585632324e-01) (9, -3.91769737005233764648e-01) (10, -3.62070232629776000977e-01) (11, -4.25221621990203857422e-01) (12, 5.58607041835784912109e-01) (13, -2.39807851612567901611e-02) (7, -3.63132506608963012695e-01) (8, -1.68328545987606048584e-02) (9, -7.08420723676681518555e-02) (10, 5.80199100077152252197e-02) (11, 4.05237793922424316406e-01) (12, -7.20577538013458251953e-02) (13, 2.66365474089980125427e-03) (7, 8.36060866713523864746e-02) (8, -2.95167672447860240936e-03) (9, 1.57378196716308593750e-01) (10, 8.78829509019851684570e-02) (11, -8.61805900931358337402e-02) (12, 6.96835964918136596680e-02) (13, 2.51024141907691955566e-02) (14, -1.17570650577545166016e+00) (15, -3.79582375288009643555e-01) (16, 3.23111452162265777588e-02) (17, 9.78059351444244384766e-01) (18, 2.67678141593933105469e-01) (19, 1.61252781748771667480e-01) (20, 1.01537191867828369141e+00) (21, -4.39746975898742675781e-01) (22, 4.36466783285140991211e-02) (23, -1.06161034107208251953e+00) 
