FANN_FLO_2.1
num_layers=4
learning_rate=0.700000
connection_rate=1.000000
network_type=0
learning_momentum=0.000000
training_algorithm=1
train_error_function=1
train_stop_function=0
cascade_output_change_fraction=0.010000
quickprop_decay=-0.000100
quickprop_mu=1.750000
rprop_increase_factor=1.200000
rprop_decrease_factor=0.500000
rprop_delta_min=0.000000
rprop_delta_max=50.000000
rprop_delta_zero=0.100000
cascade_output_stagnation_epochs=12
cascade_candidate_change_fraction=0.010000
cascade_candidate_stagnation_epochs=12
cascade_max_out_epochs=150
cascade_min_out_epochs=50
cascade_max_cand_epochs=150
cascade_min_cand_epochs=50
cascade_num_candidate_groups=2
bit_fail_limit=3.49999994039535522461e-01
cascade_candidate_limit=1.00000000000000000000e+03
cascade_weight_multiplier=4.00000005960464477539e-01
cascade_activation_functions_count=10
cascade_activation_functions=3 5 7 8 10 11 14 15 16 17 
cascade_activation_steepnesses_count=4
cascade_activation_steepnesses=2.50000000000000000000e-01 5.00000000000000000000e-01 7.50000000000000000000e-01 1.00000000000000000000e+00 
layer_sizes=7 7 10 2 
scale_included=0
neurons (num_inputs, activation_function, activation_steepness)=(0, 0, 0.00000000000000000000e+00) (0, 0, 0.00000000000000000000e+00) (0, 0, 0.00000000000000000000e+00) (0, 0, 0.00000000000000000000e+00) (0, 0, 0.00000000000000000000e+00) (0, 0, 0.00000000000000000000e+00) (0, 0, 0.00000000000000000000e+00) (7, 5, 5.00000000000000000000e-01) (7, 5, 5.00000000000000000000e-01) (7, 5, 5.00000000000000000000e-01) (7, 5, 5.00000000000000000000e-01) (7, 5, 5.00000000000000000000e-01) (7, 5, 5.00000000000000000000e-01) (0, 0, 0.00000000000000000000e+00) (7, 5, 5.00000000000000000000e-01) (7, 5, 5.00000000000000000000e-01) (7, 5, 5.00000000000000000000e-01) (7, 5, 5.00000000000000000000e-01) (7, 5, 5.00000000000000000000e-01) (7, 5, 5.00000000000000000000e-01) (7, 5, 5.00000000000000000000e-01) (7, 5, 5.00000000000000000000e-01) (7, 5, 5.00000000000000000000e-01) (0, 0, 0.00000000000000000000e+00) (10, 5, 5.00000000000000000000e-01) (0, 0, 0.00000000000000000000e+00) 
connections (connected_to_neuron, weight)=(0, -7.34049201011657714844e-01) (1, 2.05068424344062805176e-01) (2, -1.10026431083679199219e+00) (3, 9.84508216381072998047e-01) (4, -2.02770400047302246094e+00) (5, 1.37045335769653320312e+00) (6, -3.57906699180603027344e-01) (0, 2.57620000839233398438e+00) (1, 5.63558483123779296875e+00) (2, 1.24027341604232788086e-01) (3, 3.89151155948638916016e-01) (4, 1.18351686000823974609e+00) (5, 1.05237793922424316406e+00) (6, 9.90281403064727783203e-02) (0, -2.86620765924453735352e-01) (1, -6.78828001022338867188e-01) (2, -5.20440936088562011719e-02) (3, -3.11743305064737796783e-03) (4, -2.85945564508438110352e-01) (5, -1.58737346529960632324e-01) (6, 3.14256623387336730957e-02) (0, -2.73689240217208862305e-01) (1, -2.10141181945800781250e-01) (2, -6.89465343952178955078e-01) (3, -3.74356329441070556641e-01) (4, -8.85165452957153320312e-01) (5, -3.80981475114822387695e-01) (6, 4.75841432809829711914e-01) (0, -1.16715466976165771484e+00) (1, 3.80076825618743896484e-01) (2, -8.37098836898803710938e-01) (3, -6.70304119586944580078e-01) (4, -1.37147736549377441406e+00) (5, -4.46775406599044799805e-01) (6, 6.26201152801513671875e-01) (0, 8.51978421211242675781e-01) (1, -1.48004436492919921875e+00) (2, -5.29412627220153808594e-02) (3, 2.73791193962097167969e-01) (4, 2.62684047222137451172e-01) (5, -2.42074474692344665527e-01) (6, -3.01876128651201725006e-03) (7, -4.15492594242095947266e-01) (8, -3.11325460672378540039e-01) (9, -1.22005492448806762695e-02) (10, -7.63886153697967529297e-01) (11, 3.89301739633083343506e-02) (12, 4.18095774948596954346e-02) (13, -9.37660709023475646973e-02) (7, -1.93509474396705627441e-01) (8, -3.17160844802856445312e-01) (9, 8.88061225414276123047e-02) (10, -4.09319937229156494141e-01) (11, 1.62438809871673583984e-01) (12, 2.41333872079849243164e-01) (13, 9.22247022390365600586e-02) (7, 5.24027086794376373291e-02) (8, 1.95287331938743591309e-01) (9, 5.51557503640651702881e-02) (10, 1.41162469983100891113e-01) (11, -6.47281482815742492676e-02) (12, -6.67451918125152587891e-02) (13, -4.98416125774383544922e-02) (7, -1.74513474106788635254e-01) (8, -2.96387314796447753906e-01) (9, -7.09835439920425415039e-02) (10, -3.03831815719604492188e-01) (11, 2.08784252405166625977e-01) (12, 1.28585219383239746094e-01) (13, 2.15898850001394748688e-03) (7, 2.05917015671730041504e-01) (8, 2.43128702044486999512e-01) (9, -4.66702282428741455078e-02) (10, 4.19696658849716186523e-01) (11, -1.04276828467845916748e-01) (12, -3.35695967078208923340e-02) (13, 3.92212085425853729248e-02) (7, -2.05841466784477233887e-01) (8, -2.27895453572273254395e-01) (9, 8.40296447277069091797e-02) (10, -3.54246169328689575195e-01) (11, 1.37911051511764526367e-01) (12, 1.67805626988410949707e-01) (13, 1.81297026574611663818e-02) (7, -1.89637973904609680176e-01) (8, -1.76867768168449401855e-01) (9, -5.97463883459568023682e-02) (10, -3.46772998571395874023e-01) (11, 1.81837424635887145996e-01) (12, 1.98773384094238281250e-01) (13, -2.41245497018098831177e-02) (7, -4.81336377561092376709e-02) (8, -7.22897201776504516602e-02) (9, 2.08109542727470397949e-02) (10, -1.25144459307193756104e-02) (11, 1.13285526633262634277e-01) (12, -2.52419561147689819336e-02) (13, -3.05240098387002944946e-02) (7, -3.85511061176657676697e-03) (8, 4.42525595426559448242e-02) (9, 7.42842257022857666016e-02) (10, 3.00966240465641021729e-02) (11, -4.89170923829078674316e-02) (12, 6.72763884067535400391e-02) (13, 7.52365812659263610840e-02) (14, 5.08631646633148193359e-01) (15, 2.98154145479202270508e-01) (16, -1.08810395002365112305e-01) (17, 2.02221795916557312012e-01) (18, -2.74233102798461914062e-01) (19, 2.41284146904945373535e-01) (20, 2.19186231493949890137e-01) (21, -9.58960969001054763794e-03) (22, -2.48417258262634277344e-03) (23, -4.42420601844787597656e-01) 
