FANN_FLO_2.1
num_layers=4
learning_rate=0.100000
connection_rate=1.000000
network_type=0
learning_momentum=0.000000
training_algorithm=1
train_error_function=1
train_stop_function=0
cascade_output_change_fraction=0.010000
quickprop_decay=-0.000100
quickprop_mu=1.750000
rprop_increase_factor=1.200000
rprop_decrease_factor=0.500000
rprop_delta_min=0.000000
rprop_delta_max=50.000000
rprop_delta_zero=0.100000
cascade_output_stagnation_epochs=12
cascade_candidate_change_fraction=0.010000
cascade_candidate_stagnation_epochs=12
cascade_max_out_epochs=150
cascade_min_out_epochs=50
cascade_max_cand_epochs=150
cascade_min_cand_epochs=50
cascade_num_candidate_groups=2
bit_fail_limit=3.49999994039535522461e-01
cascade_candidate_limit=1.00000000000000000000e+03
cascade_weight_multiplier=4.00000005960464477539e-01
cascade_activation_functions_count=10
cascade_activation_functions=3 5 7 8 10 11 14 15 16 17 
cascade_activation_steepnesses_count=4
cascade_activation_steepnesses=2.50000000000000000000e-01 5.00000000000000000000e-01 7.50000000000000000000e-01 1.00000000000000000000e+00 
layer_sizes=7 7 10 2 
scale_included=0
neurons (num_inputs, activation_function, activation_steepness)=(0, 0, 0.00000000000000000000e+00) (0, 0, 0.00000000000000000000e+00) (0, 0, 0.00000000000000000000e+00) (0, 0, 0.00000000000000000000e+00) (0, 0, 0.00000000000000000000e+00) (0, 0, 0.00000000000000000000e+00) (0, 0, 0.00000000000000000000e+00) (7, 5, 5.00000000000000000000e-01) (7, 5, 5.00000000000000000000e-01) (7, 5, 5.00000000000000000000e-01) (7, 5, 5.00000000000000000000e-01) (7, 5, 5.00000000000000000000e-01) (7, 5, 5.00000000000000000000e-01) (0, 0, 0.00000000000000000000e+00) (7, 5, 5.00000000000000000000e-01) (7, 5, 5.00000000000000000000e-01) (7, 5, 5.00000000000000000000e-01) (7, 5, 5.00000000000000000000e-01) (7, 5, 5.00000000000000000000e-01) (7, 5, 5.00000000000000000000e-01) (7, 5, 5.00000000000000000000e-01) (7, 5, 5.00000000000000000000e-01) (7, 5, 5.00000000000000000000e-01) (0, 0, 0.00000000000000000000e+00) (10, 5, 5.00000000000000000000e-01) (0, 0, 0.00000000000000000000e+00) 
connections (connected_to_neuron, weight)=(0, 3.99995625019073486328e-01) (1, -3.49832847714424133301e-02) (2, 4.17064875364303588867e-01) (3, 2.92513472959399223328e-03) (4, 4.37973767518997192383e-01) (5, 6.41030669212341308594e-02) (6, -3.50187383592128753662e-02) (0, 9.30596366524696350098e-02) (1, 1.96195524185895919800e-02) (2, 9.73870679736137390137e-02) (3, -4.13599945604801177979e-02) (4, 6.73363804817199707031e-02) (5, -2.98626124858856201172e-01) (6, -1.60753428936004638672e-01) (0, -9.53106135129928588867e-02) (1, 5.27474641799926757812e-01) (2, -1.16944931447505950928e-01) (3, -1.41844153404235839844e-01) (4, -1.99362322688102722168e-01) (5, -1.83124467730522155762e-01) (6, 3.14368456602096557617e-02) (0, 1.75724461674690246582e-01) (1, -2.05146651715040206909e-02) (2, 1.57226517796516418457e-01) (3, -4.18055579066276550293e-02) (4, 1.65567755699157714844e-01) (5, 2.72452801465988159180e-01) (6, 3.74005064368247985840e-02) (0, -9.98684018850326538086e-02) (1, 1.98524054139852523804e-02) (2, -3.03596034646034240723e-02) (3, 2.24700897932052612305e-01) (4, -6.98322281241416931152e-02) (5, 3.32160562276840209961e-01) (6, -6.77462965250015258789e-02) (0, -3.90135683119297027588e-02) (1, -4.03517097234725952148e-01) (2, -1.21987640857696533203e-01) (3, -2.64399886131286621094e-01) (4, -2.16640774160623550415e-02) (5, -1.98278844356536865234e-01) (6, 1.20095811784267425537e-01) (7, -9.27492454648017883301e-02) (8, 3.87628003954887390137e-02) (9, 1.17866098880767822266e-02) (10, -7.86364264786243438721e-03) (11, -2.91767325252294540405e-02) (12, 1.66251137852668762207e-01) (13, 5.22597618401050567627e-02) (7, -2.55212038755416870117e-01) (8, 2.54783987998962402344e-01) (9, 1.10576108098030090332e-01) (10, 1.71893522143363952637e-01) (11, 6.29639998078346252441e-02) (12, 2.16259479522705078125e-01) (13, 4.75715361535549163818e-02) (7, 2.03286856412887573242e-01) (8, -2.66288459300994873047e-01) (9, -1.70248478651046752930e-01) (10, -1.04280494153499603271e-01) (11, -9.60306376218795776367e-02) (12, -3.07354658842086791992e-01) (13, -1.11321426928043365479e-01) (7, 4.55109886825084686279e-02) (8, -1.84590175747871398926e-01) (9, -1.34478956460952758789e-02) (10, -9.95512306690216064453e-02) (11, -4.61801700294017791748e-02) (12, -2.04870238900184631348e-01) (13, -8.57021957635879516602e-02) (7, -2.45040878653526306152e-01) (8, 2.22351342439651489258e-01) (9, 1.22185476124286651611e-01) (10, 5.19213937222957611084e-02) (11, 6.02225922048091888428e-02) (12, 2.53726899623870849609e-01) (13, 2.76110321283340454102e-02) (7, -1.57992184162139892578e-01) (8, 1.23238988220691680908e-01) (9, -2.70967297255992889404e-02) (10, 1.78728103637695312500e-02) (11, 1.26323759555816650391e-01) (12, 8.50786417722702026367e-02) (13, 1.57126113772392272949e-02) (7, 6.52570724487304687500e-02) (8, 4.96278591454029083252e-02) (9, 3.76549214124679565430e-02) (10, -8.80995988845825195312e-02) (11, -1.72662120312452316284e-02) (12, -8.68144929409027099609e-02) (13, 9.54453423619270324707e-02) (7, -2.01536893844604492188e-01) (8, 1.00150972604751586914e-01) (9, -3.82534191012382507324e-02) (10, 1.04360215365886688232e-01) (11, 1.84243485331535339355e-01) (12, 1.36441797018051147461e-01) (13, 1.15332715213298797607e-01) (7, 2.72843718528747558594e-01) (8, -1.38167217373847961426e-01) (9, -5.62398582696914672852e-02) (10, -7.79758468270301818848e-02) (11, -1.93357914686203002930e-01) (12, -2.43930563330650329590e-01) (13, -1.07925519347190856934e-01) (14, -1.42509907484054565430e-01) (15, -4.35097873210906982422e-01) (16, 4.86451685428619384766e-01) (17, 2.74951308965682983398e-01) (18, -4.07285541296005249023e-01) (19, -2.33283370733261108398e-01) (20, 5.36602213978767395020e-02) (21, -2.93220400810241699219e-01) (22, 4.25090849399566650391e-01) (23, -1.84253782033920288086e-01) 
