FANN_FLO_2.1
num_layers=4
learning_rate=0.700000
connection_rate=1.000000
network_type=0
learning_momentum=0.000000
training_algorithm=1
train_error_function=1
train_stop_function=0
cascade_output_change_fraction=0.010000
quickprop_decay=-0.000100
quickprop_mu=1.750000
rprop_increase_factor=1.200000
rprop_decrease_factor=0.500000
rprop_delta_min=0.000000
rprop_delta_max=50.000000
rprop_delta_zero=0.100000
cascade_output_stagnation_epochs=12
cascade_candidate_change_fraction=0.010000
cascade_candidate_stagnation_epochs=12
cascade_max_out_epochs=150
cascade_min_out_epochs=50
cascade_max_cand_epochs=150
cascade_min_cand_epochs=50
cascade_num_candidate_groups=2
bit_fail_limit=3.49999994039535522461e-01
cascade_candidate_limit=1.00000000000000000000e+03
cascade_weight_multiplier=4.00000005960464477539e-01
cascade_activation_functions_count=10
cascade_activation_functions=3 5 7 8 10 11 14 15 16 17 
cascade_activation_steepnesses_count=4
cascade_activation_steepnesses=2.50000000000000000000e-01 5.00000000000000000000e-01 7.50000000000000000000e-01 1.00000000000000000000e+00 
layer_sizes=7 7 10 2 
scale_included=0
neurons (num_inputs, activation_function, activation_steepness)=(0, 0, 0.00000000000000000000e+00) (0, 0, 0.00000000000000000000e+00) (0, 0, 0.00000000000000000000e+00) (0, 0, 0.00000000000000000000e+00) (0, 0, 0.00000000000000000000e+00) (0, 0, 0.00000000000000000000e+00) (0, 0, 0.00000000000000000000e+00) (7, 5, 5.00000000000000000000e-01) (7, 5, 5.00000000000000000000e-01) (7, 5, 5.00000000000000000000e-01) (7, 5, 5.00000000000000000000e-01) (7, 5, 5.00000000000000000000e-01) (7, 5, 5.00000000000000000000e-01) (0, 0, 0.00000000000000000000e+00) (7, 5, 5.00000000000000000000e-01) (7, 5, 5.00000000000000000000e-01) (7, 5, 5.00000000000000000000e-01) (7, 5, 5.00000000000000000000e-01) (7, 5, 5.00000000000000000000e-01) (7, 5, 5.00000000000000000000e-01) (7, 5, 5.00000000000000000000e-01) (7, 5, 5.00000000000000000000e-01) (7, 5, 5.00000000000000000000e-01) (0, 0, 0.00000000000000000000e+00) (10, 5, 5.00000000000000000000e-01) (0, 0, 0.00000000000000000000e+00) 
connections (connected_to_neuron, weight)=(0, 1.52163326740264892578e+00) (1, -5.02510130405426025391e-01) (2, 5.41479766368865966797e-01) (3, 6.52988493442535400391e-01) (4, 5.16943514347076416016e-01) (5, 7.50273689627647399902e-02) (6, -5.52784383296966552734e-01) (0, 5.34223508834838867188e+00) (1, 6.04696607589721679688e+00) (2, 5.20223081111907958984e-01) (3, 1.51226150989532470703e+00) (4, 1.99122488498687744141e+00) (5, 1.30095708370208740234e+00) (6, 1.55639275908470153809e-01) (0, 1.29631268978118896484e+00) (1, -4.73815679550170898438e-01) (2, -1.01388370990753173828e+00) (3, 6.38052463531494140625e-01) (4, -9.39726054668426513672e-01) (5, -6.74169883131980895996e-02) (6, 7.44668483734130859375e-01) (0, 7.56448805332183837891e-01) (1, -1.94363787770271301270e-01) (2, 7.70919442176818847656e-01) (3, -9.25717115402221679688e-01) (4, 1.21968901157379150391e+00) (5, -1.45612645149230957031e+00) (6, 3.42085838317871093750e-01) (0, 3.52149218320846557617e-01) (1, 1.56387984752655029297e-01) (2, 1.28230571746826171875e+00) (3, 4.15180623531341552734e-01) (4, 9.47201073169708251953e-01) (5, 3.63291323184967041016e-01) (6, -5.94648420810699462891e-01) (0, -2.36277723312377929688e+00) (1, -3.68623733520507812500e+00) (2, 3.33925306797027587891e-01) (3, -4.64847028255462646484e-01) (4, 6.03324808180332183838e-02) (5, -4.15380269289016723633e-01) (6, -6.32606679573655128479e-03) (7, -4.12753760814666748047e-01) (8, -3.23110014200210571289e-01) (9, -2.87698179483413696289e-01) (10, 8.94179120659828186035e-02) (11, -2.87414044141769409180e-01) (12, 1.61708444356918334961e-01) (13, -1.64724797010421752930e-01) (7, -6.70951083302497863770e-02) (8, -8.69255885481834411621e-02) (9, 5.46007275581359863281e-01) (10, 5.67962765693664550781e-01) (11, 7.70226597785949707031e-01) (12, -2.44463291019201278687e-02) (13, 2.43385702371597290039e-01) (7, 2.71096557378768920898e-01) (8, 1.91113710403442382812e-01) (9, 1.48667031899094581604e-02) (10, -3.73753905296325683594e-01) (11, -4.62616264820098876953e-01) (12, -1.39813482761383056641e-01) (13, -4.15565408766269683838e-02) (7, -4.23225492238998413086e-01) (8, -3.02371472120285034180e-01) (9, -1.99164420366287231445e-01) (10, 2.20917567610740661621e-01) (11, 4.34189826250076293945e-01) (12, 1.68071165680885314941e-01) (13, -3.72695997357368469238e-02) (7, 1.17801517248153686523e-01) (8, 1.61767631769180297852e-01) (9, 7.70688578486442565918e-02) (10, -2.73084342479705810547e-01) (11, 1.41781315207481384277e-01) (12, -1.98805090039968490601e-02) (13, 9.35115199536085128784e-03) (7, -1.53407439589500427246e-01) (8, -1.66829541325569152832e-01) (9, 7.65429288148880004883e-02) (10, -1.89279802143573760986e-02) (11, 2.08833545446395874023e-01) (12, 7.25138187408447265625e-02) (13, 2.39020437002182006836e-02) (7, -1.06208458542823791504e-01) (8, -1.45692452788352966309e-01) (9, -1.23927876353263854980e-01) (10, -4.07524555921554565430e-02) (11, -2.76037678122520446777e-03) (12, 1.41801998019218444824e-01) (13, 1.13000096753239631653e-02) (7, 6.54279673472046852112e-03) (8, -6.54687881469726562500e-02) (9, -7.76514783501625061035e-02) (10, -1.77792012691497802734e-01) (11, -4.63314689695835113525e-02) (12, -1.07351005077362060547e-01) (13, -5.18426187336444854736e-02) (7, -7.25814625620841979980e-02) (8, 4.81407828629016876221e-02) (9, 2.46805593371391296387e-01) (10, -8.91785696148872375488e-03) (11, 3.06440144777297973633e-01) (12, 4.78105209767818450928e-02) (13, 6.36117160320281982422e-02) (14, -6.70885741710662841797e-02) (15, 4.90252524614334106445e-01) (16, -2.09978953003883361816e-01) (17, 3.55077028274536132812e-01) (18, 1.35289609432220458984e-01) (19, 1.89019754528999328613e-01) (20, 8.89271572232246398926e-02) (21, 6.38421326875686645508e-02) (22, 1.94287657737731933594e-01) (23, -5.61908245086669921875e-01) 
