FANN_FLO_2.1
num_layers=4
learning_rate=0.700000
connection_rate=1.000000
network_type=0
learning_momentum=0.000000
training_algorithm=1
train_error_function=1
train_stop_function=0
cascade_output_change_fraction=0.010000
quickprop_decay=-0.000100
quickprop_mu=1.750000
rprop_increase_factor=1.200000
rprop_decrease_factor=0.500000
rprop_delta_min=0.000000
rprop_delta_max=50.000000
rprop_delta_zero=0.100000
cascade_output_stagnation_epochs=12
cascade_candidate_change_fraction=0.010000
cascade_candidate_stagnation_epochs=12
cascade_max_out_epochs=150
cascade_min_out_epochs=50
cascade_max_cand_epochs=150
cascade_min_cand_epochs=50
cascade_num_candidate_groups=2
bit_fail_limit=3.49999994039535522461e-01
cascade_candidate_limit=1.00000000000000000000e+03
cascade_weight_multiplier=4.00000005960464477539e-01
cascade_activation_functions_count=10
cascade_activation_functions=3 5 7 8 10 11 14 15 16 17 
cascade_activation_steepnesses_count=4
cascade_activation_steepnesses=2.50000000000000000000e-01 5.00000000000000000000e-01 7.50000000000000000000e-01 1.00000000000000000000e+00 
layer_sizes=7 7 10 2 
scale_included=0
neurons (num_inputs, activation_function, activation_steepness)=(0, 0, 0.00000000000000000000e+00) (0, 0, 0.00000000000000000000e+00) (0, 0, 0.00000000000000000000e+00) (0, 0, 0.00000000000000000000e+00) (0, 0, 0.00000000000000000000e+00) (0, 0, 0.00000000000000000000e+00) (0, 0, 0.00000000000000000000e+00) (7, 5, 5.00000000000000000000e-01) (7, 5, 5.00000000000000000000e-01) (7, 5, 5.00000000000000000000e-01) (7, 5, 5.00000000000000000000e-01) (7, 5, 5.00000000000000000000e-01) (7, 5, 5.00000000000000000000e-01) (0, 0, 0.00000000000000000000e+00) (7, 5, 5.00000000000000000000e-01) (7, 5, 5.00000000000000000000e-01) (7, 5, 5.00000000000000000000e-01) (7, 5, 5.00000000000000000000e-01) (7, 5, 5.00000000000000000000e-01) (7, 5, 5.00000000000000000000e-01) (7, 5, 5.00000000000000000000e-01) (7, 5, 5.00000000000000000000e-01) (7, 5, 5.00000000000000000000e-01) (0, 0, 0.00000000000000000000e+00) (10, 5, 5.00000000000000000000e-01) (0, 0, 0.00000000000000000000e+00) 
connections (connected_to_neuron, weight)=(0, -4.95294004678726196289e-01) (1, 1.37253761291503906250e-01) (2, -9.67867672443389892578e-01) (3, -1.08999323844909667969e+00) (4, -1.20558619499206542969e+00) (5, -9.63725566864013671875e-01) (6, 7.90546357631683349609e-01) (0, -4.37492877244949340820e-02) (1, -3.54218542575836181641e-01) (2, -6.98918700218200683594e-02) (3, -7.67106890678405761719e-01) (4, -3.42562526464462280273e-01) (5, -2.27668017148971557617e-01) (6, 5.98758123815059661865e-02) (0, -2.09412500262260437012e-01) (1, -2.21873685717582702637e-01) (2, -5.73672771453857421875e-01) (3, -9.35435518622398376465e-02) (4, -7.41930782794952392578e-01) (5, -7.44727373123168945312e-01) (6, 2.63485550880432128906e-01) (0, 1.11872673034667968750e+00) (1, 2.18499350547790527344e+00) (2, 1.83869957923889160156e-01) (3, -2.22612217068672180176e-01) (4, 2.69242942333221435547e-01) (5, 1.63444370031356811523e-01) (6, -2.35338822007179260254e-01) (0, -1.63981080055236816406e+00) (1, -3.24547481536865234375e+00) (2, -8.12672525644302368164e-02) (3, -8.97014513611793518066e-02) (4, 1.65476948022842407227e-01) (5, -4.43528264760971069336e-01) (6, -2.05424465239048004150e-02) (0, -9.10148501396179199219e-01) (1, 1.84877350926399230957e-01) (2, -1.43113207817077636719e+00) (3, 3.32503199577331542969e-01) (4, -1.46418678760528564453e+00) (5, 9.21141028404235839844e-01) (6, -1.68322369456291198730e-01) (7, 7.94376358389854431152e-02) (8, -2.65480101108551025391e-01) (9, -3.59587818384170532227e-01) (10, -4.10963833332061767578e-01) (11, 3.65694910287857055664e-02) (12, -3.61410886049270629883e-01) (13, -1.34351521730422973633e-01) (7, 9.04734060168266296387e-02) (8, -2.09455639123916625977e-01) (9, -6.13061636686325073242e-02) (10, -1.20838701725006103516e-01) (11, 1.53800755739212036133e-01) (12, -4.59461770951747894287e-02) (13, 4.23135757446289062500e-02) (7, -1.49367585778236389160e-01) (8, 1.48546412587165832520e-01) (9, 2.81226485967636108398e-01) (10, 2.80671328306198120117e-01) (11, -1.06337800621986389160e-01) (12, 1.09830133616924285889e-01) (13, -2.87412833422422409058e-02) (7, 1.74532741308212280273e-01) (8, -4.00821805000305175781e-01) (9, -6.36382877826690673828e-01) (10, -3.19189816713333129883e-01) (11, 1.81451216340065002441e-01) (12, -3.89065027236938476562e-01) (13, 1.07691418379545211792e-02) (7, -1.06825768947601318359e-01) (8, 1.47907748818397521973e-01) (9, 2.19186574220657348633e-01) (10, 3.12824994325637817383e-01) (11, -6.36565983295440673828e-02) (12, 2.61194527149200439453e-01) (13, 5.23850955069065093994e-02) (7, -2.61956583708524703979e-02) (8, -1.26653119921684265137e-01) (9, 2.72253043949604034424e-02) (10, -5.69986514747142791748e-02) (11, 6.73204958438873291016e-02) (12, -4.07932773232460021973e-02) (13, 2.38363118842244148254e-03) (7, -8.23793187737464904785e-02) (8, -7.01748356223106384277e-02) (9, -1.17132119834423065186e-01) (10, -3.30700188875198364258e-01) (11, 8.32721516489982604980e-02) (12, -1.37669844552874565125e-02) (13, 1.32203241810202598572e-02) (7, 7.82092437148094177246e-02) (8, -9.69761312007904052734e-02) (9, -9.26530435681343078613e-02) (10, -9.63192805647850036621e-02) (11, 1.36297523975372314453e-01) (12, -1.29949495196342468262e-01) (13, -7.87704214453697204590e-02) (7, -5.37528321146965026855e-02) (8, 5.37743717432022094727e-02) (9, 1.68340787291526794434e-01) (10, 2.76935309171676635742e-01) (11, -4.25433963537216186523e-02) (12, 1.20595410466194152832e-01) (13, 7.20506757497787475586e-02) (14, 4.78646367788314819336e-01) (15, 1.41957327723503112793e-01) (16, -3.10860991477966308594e-01) (17, 5.12651979923248291016e-01) (18, -3.42884778976440429688e-01) (19, 6.42410814762115478516e-02) (20, 3.14189165830612182617e-01) (21, 1.08907245099544525146e-01) (22, -2.67837703227996826172e-01) (23, -5.19567131996154785156e-01) 
