FANN_FLO_2.1
num_layers=4
learning_rate=0.700000
connection_rate=1.000000
network_type=0
learning_momentum=0.000000
training_algorithm=1
train_error_function=1
train_stop_function=0
cascade_output_change_fraction=0.010000
quickprop_decay=-0.000100
quickprop_mu=1.750000
rprop_increase_factor=1.200000
rprop_decrease_factor=0.500000
rprop_delta_min=0.000000
rprop_delta_max=50.000000
rprop_delta_zero=0.100000
cascade_output_stagnation_epochs=12
cascade_candidate_change_fraction=0.010000
cascade_candidate_stagnation_epochs=12
cascade_max_out_epochs=150
cascade_min_out_epochs=50
cascade_max_cand_epochs=150
cascade_min_cand_epochs=50
cascade_num_candidate_groups=2
bit_fail_limit=3.49999994039535522461e-01
cascade_candidate_limit=1.00000000000000000000e+03
cascade_weight_multiplier=4.00000005960464477539e-01
cascade_activation_functions_count=10
cascade_activation_functions=3 5 7 8 10 11 14 15 16 17 
cascade_activation_steepnesses_count=4
cascade_activation_steepnesses=2.50000000000000000000e-01 5.00000000000000000000e-01 7.50000000000000000000e-01 1.00000000000000000000e+00 
layer_sizes=7 7 10 2 
scale_included=0
neurons (num_inputs, activation_function, activation_steepness)=(0, 0, 0.00000000000000000000e+00) (0, 0, 0.00000000000000000000e+00) (0, 0, 0.00000000000000000000e+00) (0, 0, 0.00000000000000000000e+00) (0, 0, 0.00000000000000000000e+00) (0, 0, 0.00000000000000000000e+00) (0, 0, 0.00000000000000000000e+00) (7, 5, 5.00000000000000000000e-01) (7, 5, 5.00000000000000000000e-01) (7, 5, 5.00000000000000000000e-01) (7, 5, 5.00000000000000000000e-01) (7, 5, 5.00000000000000000000e-01) (7, 5, 5.00000000000000000000e-01) (0, 0, 0.00000000000000000000e+00) (7, 5, 5.00000000000000000000e-01) (7, 5, 5.00000000000000000000e-01) (7, 5, 5.00000000000000000000e-01) (7, 5, 5.00000000000000000000e-01) (7, 5, 5.00000000000000000000e-01) (7, 5, 5.00000000000000000000e-01) (7, 5, 5.00000000000000000000e-01) (7, 5, 5.00000000000000000000e-01) (7, 5, 5.00000000000000000000e-01) (0, 0, 0.00000000000000000000e+00) (10, 5, 5.00000000000000000000e-01) (0, 0, 0.00000000000000000000e+00) 
connections (connected_to_neuron, weight)=(0, -2.65488743782043457031e-01) (1, -6.13622605800628662109e-01) (2, -5.59821613132953643799e-02) (3, 1.13836023956537246704e-02) (4, -2.81547814607620239258e-01) (5, -2.62653350830078125000e-01) (6, 1.52468010783195495605e-01) (0, -6.19241118431091308594e-01) (1, 1.60966627299785614014e-02) (2, -3.49712520837783813477e-01) (3, 1.38391569256782531738e-01) (4, -9.93395209312438964844e-01) (5, -5.25888979434967041016e-01) (6, 4.86957311630249023438e-01) (0, 1.63396775722503662109e-01) (1, -6.56635761260986328125e-02) (2, 9.33750271797180175781e-02) (3, 9.53139960765838623047e-01) (4, 5.55387258529663085938e-01) (5, 1.74576580524444580078e+00) (6, 8.98278430104255676270e-02) (0, 4.66839596629142761230e-02) (1, 2.61072307825088500977e-01) (2, -1.19199983775615692139e-01) (3, -3.23578536510467529297e-01) (4, 1.01086117327213287354e-01) (5, 2.88770273327827453613e-02) (6, 1.51806607842445373535e-01) (0, 2.82291889190673828125e-01) (1, -2.37996965646743774414e-01) (2, 1.96428731083869934082e-01) (3, 9.62202325463294982910e-02) (4, 3.27538400888442993164e-02) (5, -2.49919131398200988770e-01) (6, 2.46844105422496795654e-02) (0, -1.21825069189071655273e-01) (1, -2.81360357999801635742e-01) (2, -1.01663410663604736328e-01) (3, -5.14944851398468017578e-01) (4, -1.35812431573867797852e-01) (5, -7.43342638015747070312e-01) (6, 5.70299208164215087891e-01) (7, 2.35887914896011352539e-01) (8, -3.87575984001159667969e-01) (9, 1.52660545427352190018e-03) (10, 1.27012863755226135254e-01) (11, 1.14224515855312347412e-01) (12, -6.92016363143920898438e-01) (13, -2.53884583711624145508e-01) (7, 2.23288640379905700684e-01) (8, -3.30088078975677490234e-01) (9, 3.73722203075885772705e-02) (10, 1.12218216061592102051e-01) (11, 1.80047616362571716309e-01) (12, -2.69041150808334350586e-01) (13, -2.98025528900325298309e-03) (7, -2.25421085953712463379e-01) (8, 2.39033371210098266602e-01) (9, 1.19040116667747497559e-01) (10, -1.00115306675434112549e-01) (11, -1.16436429321765899658e-01) (12, 3.37379932403564453125e-01) (13, 1.11931087449193000793e-02) (7, 3.35801333189010620117e-01) (8, -3.72349739074707031250e-01) (9, -1.60484209656715393066e-01) (10, 1.78911700844764709473e-01) (11, 2.78163671493530273438e-01) (12, -5.98136782646179199219e-01) (13, -1.31599992513656616211e-01) (7, -2.01085865497589111328e-01) (8, 2.49153479933738708496e-01) (9, -5.74221694841980934143e-03) (10, -9.22595188021659851074e-02) (11, -1.00545518100261688232e-01) (12, 4.92977172136306762695e-01) (13, 1.17144517600536346436e-01) (7, 7.45020136237144470215e-02) (8, -2.12124690413475036621e-01) (9, 6.38811290264129638672e-02) (10, 4.21965308487415313721e-02) (11, 1.05879478156566619873e-01) (12, -1.75178587436676025391e-01) (13, -2.58038137108087539673e-02) (7, 3.93862165510654449463e-02) (8, -1.98099002242088317871e-01) (9, -9.04018357396125793457e-02) (10, -4.72287498414516448975e-02) (11, 1.30184471607208251953e-01) (12, -2.15112984180450439453e-01) (13, -2.84500494599342346191e-02) (7, 1.10019311308860778809e-01) (8, -9.86375138163566589355e-02) (9, 3.27654704451560974121e-02) (10, 9.14909765124320983887e-02) (11, 1.42296284437179565430e-01) (12, -2.22125053405761718750e-01) (13, -8.37258100509643554688e-02) (7, -1.07410185039043426514e-01) (8, 8.77075642347335815430e-02) (9, 6.75833821296691894531e-02) (10, -1.68201327323913574219e-02) (11, -6.84161856770515441895e-02) (12, 2.75518774986267089844e-01) (13, 9.87055152654647827148e-02) (14, 6.98063910007476806641e-01) (15, 3.81308794021606445312e-01) (16, -3.79515856504440307617e-01) (17, 6.62000536918640136719e-01) (18, -4.93593811988830566406e-01) (19, 2.24380567669868469238e-01) (20, 2.23192930221557617188e-01) (21, 2.31396391987800598145e-01) (22, -2.41505905985832214355e-01) (23, -8.20896923542022705078e-01) 
