FANN_FLO_2.1
num_layers=3
learning_rate=0.700000
connection_rate=1.000000
network_type=0
learning_momentum=0.000000
training_algorithm=1
train_error_function=1
train_stop_function=0
cascade_output_change_fraction=0.010000
quickprop_decay=-0.000100
quickprop_mu=1.750000
rprop_increase_factor=1.200000
rprop_decrease_factor=0.500000
rprop_delta_min=0.000000
rprop_delta_max=50.000000
rprop_delta_zero=0.100000
cascade_output_stagnation_epochs=12
cascade_candidate_change_fraction=0.010000
cascade_candidate_stagnation_epochs=12
cascade_max_out_epochs=150
cascade_min_out_epochs=50
cascade_max_cand_epochs=150
cascade_min_cand_epochs=50
cascade_num_candidate_groups=2
bit_fail_limit=3.49999994039535522461e-01
cascade_candidate_limit=1.00000000000000000000e+03
cascade_weight_multiplier=4.00000005960464477539e-01
cascade_activation_functions_count=10
cascade_activation_functions=3 5 7 8 10 11 14 15 16 17 
cascade_activation_steepnesses_count=4
cascade_activation_steepnesses=2.50000000000000000000e-01 5.00000000000000000000e-01 7.50000000000000000000e-01 1.00000000000000000000e+00 
layer_sizes=7 7 2 
scale_included=0
neurons (num_inputs, activation_function, activation_steepness)=(0, 0, 0.00000000000000000000e+00) (0, 0, 0.00000000000000000000e+00) (0, 0, 0.00000000000000000000e+00) (0, 0, 0.00000000000000000000e+00) (0, 0, 0.00000000000000000000e+00) (0, 0, 0.00000000000000000000e+00) (0, 0, 0.00000000000000000000e+00) (7, 5, 5.00000000000000000000e-01) (7, 5, 5.00000000000000000000e-01) (7, 5, 5.00000000000000000000e-01) (7, 5, 5.00000000000000000000e-01) (7, 5, 5.00000000000000000000e-01) (7, 5, 5.00000000000000000000e-01) (0, 0, 0.00000000000000000000e+00) (7, 5, 5.00000000000000000000e-01) (0, 0, 0.00000000000000000000e+00) 
connections (connected_to_neuron, weight)=(0, 4.64220792055130004883e-01) (1, 5.75040280818939208984e-03) (2, 9.68254983425140380859e-01) (3, -2.13564202189445495605e-01) (4, 1.06175827980041503906e+00) (5, 1.40348345041275024414e-01) (6, -2.01711043715476989746e-01) (0, 3.25746273994445800781e+00) (1, 6.32350683212280273438e+00) (2, 1.26640945672988891602e-01) (3, 2.18576148152351379395e-01) (4, 7.47221767902374267578e-01) (5, 6.21425136923789978027e-02) (6, -4.41874921321868896484e-01) (0, 3.32015728950500488281e+00) (1, -3.08431386947631835938e+00) (2, 3.90057772397994995117e-01) (3, -5.10500431060791015625e-01) (4, 1.43409800529479980469e+00) (5, -1.41900885105133056641e+00) (6, -5.40894195437431335449e-02) (0, -6.13742494583129882812e+00) (1, 1.18957638740539550781e+00) (2, -1.97274434566497802734e+00) (3, 2.61492013931274414062e+00) (4, -2.97938966751098632812e+00) (5, 2.01333355903625488281e+00) (6, -9.43176895380020141602e-02) (0, -7.77544593811035156250e+00) (1, -1.80179443359375000000e+01) (2, 1.16903193295001983643e-01) (3, -5.67015504837036132812e+00) (4, -2.55720496177673339844e+00) (5, -6.04543685913085937500e+00) (6, -7.52786695957183837891e-01) (0, -1.17936861515045166016e+00) (1, -4.22778654098510742188e+00) (2, 1.55833542346954345703e+00) (3, -9.40534234046936035156e-01) (4, 4.82149749994277954102e-01) (5, -7.52998054027557373047e-01) (6, -7.31095492839813232422e-01) (7, 5.36447823047637939453e-01) (8, -8.24356526136398315430e-02) (9, -9.97402667999267578125e-02) (10, -1.39133363962173461914e-01) (11, 4.32757407426834106445e-01) (12, 1.96095153689384460449e-01) (13, -1.67585238814353942871e-01) 
