FANN_FLO_2.1
num_layers=4
learning_rate=0.700000
connection_rate=1.000000
network_type=0
learning_momentum=0.000000
training_algorithm=1
train_error_function=1
train_stop_function=0
cascade_output_change_fraction=0.010000
quickprop_decay=-0.000100
quickprop_mu=1.750000
rprop_increase_factor=1.200000
rprop_decrease_factor=0.500000
rprop_delta_min=0.000000
rprop_delta_max=50.000000
rprop_delta_zero=0.100000
cascade_output_stagnation_epochs=12
cascade_candidate_change_fraction=0.010000
cascade_candidate_stagnation_epochs=12
cascade_max_out_epochs=150
cascade_min_out_epochs=50
cascade_max_cand_epochs=150
cascade_min_cand_epochs=50
cascade_num_candidate_groups=2
bit_fail_limit=3.49999994039535522461e-01
cascade_candidate_limit=1.00000000000000000000e+03
cascade_weight_multiplier=4.00000005960464477539e-01
cascade_activation_functions_count=10
cascade_activation_functions=3 5 7 8 10 11 14 15 16 17 
cascade_activation_steepnesses_count=4
cascade_activation_steepnesses=2.50000000000000000000e-01 5.00000000000000000000e-01 7.50000000000000000000e-01 1.00000000000000000000e+00 
layer_sizes=7 7 10 2 
scale_included=0
neurons (num_inputs, activation_function, activation_steepness)=(0, 0, 0.00000000000000000000e+00) (0, 0, 0.00000000000000000000e+00) (0, 0, 0.00000000000000000000e+00) (0, 0, 0.00000000000000000000e+00) (0, 0, 0.00000000000000000000e+00) (0, 0, 0.00000000000000000000e+00) (0, 0, 0.00000000000000000000e+00) (7, 5, 5.00000000000000000000e-01) (7, 5, 5.00000000000000000000e-01) (7, 5, 5.00000000000000000000e-01) (7, 5, 5.00000000000000000000e-01) (7, 5, 5.00000000000000000000e-01) (7, 5, 5.00000000000000000000e-01) (0, 0, 0.00000000000000000000e+00) (7, 5, 5.00000000000000000000e-01) (7, 5, 5.00000000000000000000e-01) (7, 5, 5.00000000000000000000e-01) (7, 5, 5.00000000000000000000e-01) (7, 5, 5.00000000000000000000e-01) (7, 5, 5.00000000000000000000e-01) (7, 5, 5.00000000000000000000e-01) (7, 5, 5.00000000000000000000e-01) (7, 5, 5.00000000000000000000e-01) (0, 0, 0.00000000000000000000e+00) (10, 5, 5.00000000000000000000e-01) (0, 0, 0.00000000000000000000e+00) 
connections (connected_to_neuron, weight)=(0, -1.31218779087066650391e+00) (1, 2.14278876781463623047e-01) (2, -1.27331590652465820312e+00) (3, 1.81333363056182861328e-01) (4, -1.51198422908782958984e+00) (5, 2.66082789748907089233e-02) (6, 1.16763234138488769531e-01) (0, 2.04263329505920410156e+00) (1, 3.83459615707397460938e+00) (2, 9.11922901868820190430e-02) (3, 7.38360583782196044922e-01) (4, 1.54702687263488769531e+00) (5, 1.79397797584533691406e+00) (6, 1.51891797780990600586e-01) (0, 3.93076866865158081055e-01) (1, -2.84291923046112060547e-01) (2, -4.63730573654174804688e-01) (3, -1.80993109941482543945e-01) (4, -3.72269600629806518555e-01) (5, -4.24935370683670043945e-01) (6, 9.00634005665779113770e-02) (0, -5.91333508491516113281e-01) (1, 2.92329847812652587891e-01) (2, 4.04599815607070922852e-01) (3, 6.32439434528350830078e-01) (4, 3.39405626058578491211e-01) (5, 8.73219311237335205078e-01) (6, -3.07376712560653686523e-01) (0, 7.73710235953330993652e-02) (1, 1.13668344914913177490e-01) (2, 2.79199749231338500977e-01) (3, 7.26618319749832153320e-02) (4, 5.05384057760238647461e-02) (5, 1.11822724342346191406e-01) (6, -8.97533893585205078125e-02) (0, -4.22296375036239624023e-01) (1, -2.43624016642570495605e-01) (2, -1.47578552365303039551e-01) (3, -3.06693881750106811523e-01) (4, -1.90654456615447998047e-01) (5, -5.56734979152679443359e-01) (6, 2.10104525089263916016e-01) (7, -4.26763385534286499023e-01) (8, -2.17035770416259765625e-01) (9, -3.91158014535903930664e-01) (10, -1.25895366072654724121e-01) (11, -4.18671406805515289307e-02) (12, 5.15149720013141632080e-02) (13, -6.95823580026626586914e-02) (7, -2.83600568771362304688e-01) (8, -2.76173144578933715820e-01) (9, -2.03276976943016052246e-01) (10, -2.45350152254104614258e-02) (11, 8.66237431764602661133e-02) (12, 1.85093566775321960449e-01) (13, 8.55383127927780151367e-02) (7, 1.10288985073566436768e-01) (8, 1.43233537673950195312e-01) (9, 2.46745556592941284180e-01) (10, 3.56059931218624114990e-02) (11, 4.54363413155078887939e-03) (12, -1.07301026582717895508e-01) (13, -5.79334609210491180420e-02) (7, -2.99018025398254394531e-01) (8, -2.09772467613220214844e-01) (9, -4.51656669378280639648e-01) (10, -6.09026961028575897217e-02) (11, 1.06860332190990447998e-01) (12, 1.11839316785335540771e-01) (13, 1.00978463888168334961e-02) (7, 2.52862423658370971680e-01) (8, 1.67921334505081176758e-01) (9, 2.15561747550964355469e-01) (10, 7.43236020207405090332e-02) (11, 3.09446044266223907471e-02) (12, -2.15974412858486175537e-02) (13, 1.64713971316814422607e-02) (7, -2.70001679658889770508e-01) (8, -1.88109934329986572266e-01) (9, -1.46552622318267822266e-01) (10, -5.56546822190284729004e-02) (11, 4.37795557081699371338e-02) (12, 1.15483239293098449707e-01) (13, 2.78690177947282791138e-02) (7, -2.47011989355087280273e-01) (8, -9.53971967101097106934e-02) (9, -2.86041170358657836914e-01) (10, -2.00457081198692321777e-01) (11, 4.60764318704605102539e-02) (12, 1.56759530305862426758e-01) (13, 2.96044480055570602417e-02) (7, -3.81098575890064239502e-02) (8, -9.03055220842361450195e-02) (9, -3.29921729862689971924e-02) (10, 2.67076529562473297119e-02) (11, 8.80046561360359191895e-02) (12, -4.36863042414188385010e-02) (13, -7.51933604478836059570e-02) (7, -2.96285301446914672852e-02) (8, 2.34729126095771789551e-02) (9, 8.96016955375671386719e-02) (10, 5.56935518980026245117e-02) (11, 4.24193451181054115295e-03) (12, 6.31249547004699707031e-02) (13, 7.35166370868682861328e-02) (14, 3.82237881422042846680e-01) (15, 2.72376775741577148438e-01) (16, -1.97981923818588256836e-01) (17, 3.60161364078521728516e-01) (18, -2.32042446732521057129e-01) (19, 2.16023042798042297363e-01) (20, 2.65552282333374023438e-01) (21, 1.81202907115221023560e-02) (22, -1.22018968686461448669e-02) (23, -3.20066183805465698242e-01) 
