FANN_FLO_2.1
num_layers=4
learning_rate=0.700000
connection_rate=1.000000
network_type=0
learning_momentum=0.000000
training_algorithm=1
train_error_function=1
train_stop_function=0
cascade_output_change_fraction=0.010000
quickprop_decay=-0.000100
quickprop_mu=1.750000
rprop_increase_factor=1.200000
rprop_decrease_factor=0.500000
rprop_delta_min=0.000000
rprop_delta_max=50.000000
rprop_delta_zero=0.100000
cascade_output_stagnation_epochs=12
cascade_candidate_change_fraction=0.010000
cascade_candidate_stagnation_epochs=12
cascade_max_out_epochs=150
cascade_min_out_epochs=50
cascade_max_cand_epochs=150
cascade_min_cand_epochs=50
cascade_num_candidate_groups=2
bit_fail_limit=3.49999994039535522461e-01
cascade_candidate_limit=1.00000000000000000000e+03
cascade_weight_multiplier=4.00000005960464477539e-01
cascade_activation_functions_count=10
cascade_activation_functions=3 5 7 8 10 11 14 15 16 17 
cascade_activation_steepnesses_count=4
cascade_activation_steepnesses=2.50000000000000000000e-01 5.00000000000000000000e-01 7.50000000000000000000e-01 1.00000000000000000000e+00 
layer_sizes=7 7 10 2 
scale_included=0
neurons (num_inputs, activation_function, activation_steepness)=(0, 0, 0.00000000000000000000e+00) (0, 0, 0.00000000000000000000e+00) (0, 0, 0.00000000000000000000e+00) (0, 0, 0.00000000000000000000e+00) (0, 0, 0.00000000000000000000e+00) (0, 0, 0.00000000000000000000e+00) (0, 0, 0.00000000000000000000e+00) (7, 5, 5.00000000000000000000e-01) (7, 5, 5.00000000000000000000e-01) (7, 5, 5.00000000000000000000e-01) (7, 5, 5.00000000000000000000e-01) (7, 5, 5.00000000000000000000e-01) (7, 5, 5.00000000000000000000e-01) (0, 0, 0.00000000000000000000e+00) (7, 5, 5.00000000000000000000e-01) (7, 5, 5.00000000000000000000e-01) (7, 5, 5.00000000000000000000e-01) (7, 5, 5.00000000000000000000e-01) (7, 5, 5.00000000000000000000e-01) (7, 5, 5.00000000000000000000e-01) (7, 5, 5.00000000000000000000e-01) (7, 5, 5.00000000000000000000e-01) (7, 5, 5.00000000000000000000e-01) (0, 0, 0.00000000000000000000e+00) (10, 5, 5.00000000000000000000e-01) (0, 0, 0.00000000000000000000e+00) 
connections (connected_to_neuron, weight)=(0, -6.58169567584991455078e-01) (1, 8.45118388533592224121e-02) (2, -6.86683416366577148438e-01) (3, 1.73897206783294677734e-01) (4, -1.12764620780944824219e+00) (5, -1.63569658994674682617e-01) (6, 2.13177666068077087402e-01) (0, 5.00009417533874511719e-01) (1, 8.90317857265472412109e-01) (2, -1.80807888507843017578e-01) (3, 1.60034611821174621582e-01) (4, 3.53493362665176391602e-01) (5, 6.85998797416687011719e-01) (6, 1.60609334707260131836e-01) (0, -5.23766782134771347046e-03) (1, -3.30334454774856567383e-02) (2, 3.90454716980457305908e-02) (3, 4.07894760370254516602e-01) (4, 5.51825046539306640625e-01) (5, 9.65148746967315673828e-01) (6, -1.66058316826820373535e-01) (0, -2.02490508556365966797e-01) (1, 2.23133917897939682007e-02) (2, -1.05937451124191284180e-01) (3, -4.72748419269919395447e-03) (4, -1.54664069414138793945e-01) (5, 2.95487046241760253906e-02) (6, 1.06972634792327880859e-01) (0, -8.01188200712203979492e-02) (1, 6.61775410175323486328e-01) (2, 1.72713696956634521484e-01) (3, -4.89765971899032592773e-01) (4, -5.07989466190338134766e-01) (5, -8.08126807212829589844e-01) (6, -1.67125418782234191895e-01) (0, -5.94978071749210357666e-02) (1, -3.72980058193206787109e-01) (2, -4.13050770759582519531e-01) (3, -5.45073449611663818359e-01) (4, -5.41948378086090087891e-01) (5, -3.77102047204971313477e-01) (6, 3.17192316055297851562e-01) (7, -4.65013921260833740234e-01) (8, -2.35392540693283081055e-01) (9, -1.93970426917076110840e-01) (10, 1.79283842444419860840e-01) (11, -5.85230112075805664062e-01) (12, -5.00247240066528320312e-01) (13, -1.01665779948234558105e-01) (7, -2.09541663527488708496e-01) (8, -2.38266915082931518555e-01) (9, 6.38513965532183647156e-03) (10, 1.07807137072086334229e-01) (11, -1.15800127387046813965e-01) (12, -1.48481979966163635254e-01) (13, 8.89222547411918640137e-02) (7, 1.35636568069458007812e-01) (8, 1.47650524973869323730e-01) (9, 1.54951825737953186035e-01) (10, -1.14748537540435791016e-01) (11, 1.65553078055381774902e-01) (12, 1.70541793107986450195e-01) (13, -7.66877084970474243164e-02) (7, -2.77732044458389282227e-01) (8, -2.18329653143882751465e-01) (9, -2.34486356377601623535e-01) (10, 1.90355718135833740234e-01) (11, -2.20690965652465820312e-01) (12, -3.35900276899337768555e-01) (13, 2.63330060988664627075e-02) (7, 2.88133949041366577148e-01) (8, 1.51872053742408752441e-01) (9, 1.15910395979881286621e-01) (10, -1.37794032692909240723e-01) (11, 3.67505073547363281250e-01) (12, 3.48257452249526977539e-01) (13, 1.78504753857851028442e-02) (7, -2.29782521724700927734e-01) (8, -1.55583217740058898926e-01) (9, 9.31493192911148071289e-03) (10, 7.23736882209777832031e-02) (11, -1.35793820023536682129e-01) (12, -1.51274383068084716797e-01) (13, 2.78637707233428955078e-02) (7, -2.56967306137084960938e-01) (8, -1.24848842620849609375e-01) (9, -1.63734525442123413086e-01) (10, 4.89833066239953041077e-03) (11, -1.05630427598953247070e-01) (12, -1.63091078400611877441e-01) (13, 2.09851711988449096680e-02) (7, -3.94199788570404052734e-02) (8, -5.54092712700366973877e-02) (9, 1.83478817343711853027e-02) (10, 7.66345188021659851074e-02) (11, 2.11164895445108413696e-02) (12, -1.29593849182128906250e-01) (13, -5.32823018729686737061e-02) (7, 4.70333881676197052002e-02) (8, 3.65222804248332977295e-02) (9, 1.06837384402751922607e-01) (10, -2.57443636655807495117e-02) (11, 8.53167250752449035645e-02) (12, 1.57430842518806457520e-01) (13, 6.26929476857185363770e-02) (14, 8.96686673164367675781e-01) (15, 2.98117041587829589844e-01) (16, -3.23844432830810546875e-01) (17, 5.43897211551666259766e-01) (18, -5.88312625885009765625e-01) (19, 2.87474095821380615234e-01) (20, 2.97848820686340332031e-01) (21, 8.20656493306159973145e-02) (22, -1.66299954056739807129e-01) (23, -3.36367517709732055664e-01) 
