FANN_FLO_2.1
num_layers=4
learning_rate=0.010000
connection_rate=1.000000
network_type=0
learning_momentum=0.000000
training_algorithm=1
train_error_function=1
train_stop_function=0
cascade_output_change_fraction=0.010000
quickprop_decay=-0.000100
quickprop_mu=1.750000
rprop_increase_factor=1.200000
rprop_decrease_factor=0.500000
rprop_delta_min=0.000000
rprop_delta_max=50.000000
rprop_delta_zero=0.100000
cascade_output_stagnation_epochs=12
cascade_candidate_change_fraction=0.010000
cascade_candidate_stagnation_epochs=12
cascade_max_out_epochs=150
cascade_min_out_epochs=50
cascade_max_cand_epochs=150
cascade_min_cand_epochs=50
cascade_num_candidate_groups=2
bit_fail_limit=3.49999994039535522461e-01
cascade_candidate_limit=1.00000000000000000000e+03
cascade_weight_multiplier=4.00000005960464477539e-01
cascade_activation_functions_count=10
cascade_activation_functions=3 5 7 8 10 11 14 15 16 17 
cascade_activation_steepnesses_count=4
cascade_activation_steepnesses=2.50000000000000000000e-01 5.00000000000000000000e-01 7.50000000000000000000e-01 1.00000000000000000000e+00 
layer_sizes=7 7 10 2 
scale_included=0
neurons (num_inputs, activation_function, activation_steepness)=(0, 0, 0.00000000000000000000e+00) (0, 0, 0.00000000000000000000e+00) (0, 0, 0.00000000000000000000e+00) (0, 0, 0.00000000000000000000e+00) (0, 0, 0.00000000000000000000e+00) (0, 0, 0.00000000000000000000e+00) (0, 0, 0.00000000000000000000e+00) (7, 5, 5.00000000000000000000e-01) (7, 5, 5.00000000000000000000e-01) (7, 5, 5.00000000000000000000e-01) (7, 5, 5.00000000000000000000e-01) (7, 5, 5.00000000000000000000e-01) (7, 5, 5.00000000000000000000e-01) (0, 0, 0.00000000000000000000e+00) (7, 5, 5.00000000000000000000e-01) (7, 5, 5.00000000000000000000e-01) (7, 5, 5.00000000000000000000e-01) (7, 5, 5.00000000000000000000e-01) (7, 5, 5.00000000000000000000e-01) (7, 5, 5.00000000000000000000e-01) (7, 5, 5.00000000000000000000e-01) (7, 5, 5.00000000000000000000e-01) (7, 5, 5.00000000000000000000e-01) (0, 0, 0.00000000000000000000e+00) (10, 5, 5.00000000000000000000e-01) (0, 0, 0.00000000000000000000e+00) 
connections (connected_to_neuron, weight)=(0, -7.46657788753509521484e-01) (1, 1.52779445052146911621e-01) (2, -1.09918272495269775391e+00) (3, 9.87827360630035400391e-01) (4, -2.02264881134033203125e+00) (5, 1.36939191818237304688e+00) (6, -3.59680414199829101562e-01) (0, 2.58489871025085449219e+00) (1, 5.64288043975830078125e+00) (2, 1.24656267464160919189e-01) (3, 3.89035910367965698242e-01) (4, 1.18392622470855712891e+00) (5, 1.05134510993957519531e+00) (6, 9.90369319915771484375e-02) (0, -2.87045180797576904297e-01) (1, -6.79156601428985595703e-01) (2, -5.20707108080387115479e-02) (3, -3.11177037656307220459e-03) (4, -2.85945564508438110352e-01) (5, -1.58694460988044738770e-01) (6, 3.14255468547344207764e-02) (0, -2.62903988361358642578e-01) (1, -2.47470468282699584961e-01) (2, -6.79942309856414794922e-01) (3, -3.58812004327774047852e-01) (4, -8.80010187625885009766e-01) (5, -3.92404437065124511719e-01) (6, 4.78286534547805786133e-01) (0, -1.15387463569641113281e+00) (1, 3.76882106065750122070e-01) (2, -8.41192543506622314453e-01) (3, -6.90650582313537597656e-01) (4, -1.37347328662872314453e+00) (5, -4.42497342824935913086e-01) (6, 6.27043366432189941406e-01) (0, 8.45644772052764892578e-01) (1, -1.47886502742767333984e+00) (2, -5.22203668951988220215e-02) (3, 2.85141617059707641602e-01) (4, 2.62115538120269775391e-01) (5, -2.42368206381797790527e-01) (6, -4.04124241322278976440e-03) (7, -4.07826572656631469727e-01) (8, -3.11626106500625610352e-01) (9, -1.21638970449566841125e-02) (10, -7.62999951839447021484e-01) (11, 2.33659166842699050903e-02) (12, -3.83402295410633087158e-02) (13, -9.40715447068214416504e-02) (7, -1.89103201031684875488e-01) (8, -3.17354619503021240234e-01) (9, 8.88345837593078613281e-02) (10, -4.08721119165420532227e-01) (11, 1.51986092329025268555e-01) (12, 1.92736685276031494141e-01) (13, 9.20383334159851074219e-02) (7, 5.05469292402267456055e-02) (8, 1.95559188723564147949e-01) (9, 5.49427308142185211182e-02) (10, 1.40707477927207946777e-01) (11, -6.09097443521022796631e-02) (12, -4.84633073210716247559e-02) (13, -4.95686158537864685059e-02) (7, -1.71321421861648559570e-01) (8, -2.96692818403244018555e-01) (9, -7.07995593547821044922e-02) (10, -3.03230136632919311523e-01) (11, 2.02034980058670043945e-01) (12, 9.47626456618309020996e-02) (13, 1.86610803939402103424e-03) (7, 2.01456397771835327148e-01) (8, 2.43499726057052612305e-01) (9, -4.68863807618618011475e-02) (10, 4.18882012367248535156e-01) (11, -9.41743180155754089355e-02) (12, 1.44965322688221931458e-02) (13, 3.95920984447002410889e-02) (7, -2.02170386910438537598e-01) (8, -2.28121876716613769531e-01) (9, 8.41277763247489929199e-02) (10, -3.53658109903335571289e-01) (11, 1.29455730319023132324e-01) (12, 1.27921178936958312988e-01) (13, 1.79025493562221527100e-02) (7, -1.86802729964256286621e-01) (8, -1.76616266369819641113e-01) (9, -6.01047873497009277344e-02) (10, -3.46691101789474487305e-01) (11, 1.74403458833694458008e-01) (12, 1.63536414504051208496e-01) (13, -2.38797049969434738159e-02) (7, -4.82830926775932312012e-02) (8, -7.22689330577850341797e-02) (9, 2.07970328629016876221e-02) (10, -1.25619573518633842468e-02) (11, 1.13612517714500427246e-01) (12, -2.38555260002613067627e-02) (13, -3.05061489343643188477e-02) (7, -3.94505402073264122009e-03) (8, 4.42338213324546813965e-02) (9, 7.43042752146720886230e-02) (10, 3.00930421799421310425e-02) (11, -4.83972951769828796387e-02) (12, 6.87990933656692504883e-02) (13, 7.52216279506683349609e-02) (14, 4.98245656490325927734e-01) (15, 2.49135285615921020508e-01) (16, -9.47961062192916870117e-02) (17, 1.70587643980979919434e-01) (18, -2.64143168926239013672e-01) (19, 2.05365002155303955078e-01) (20, 1.75989046692848205566e-01) (21, -1.03214625269174575806e-02) (22, -1.27694401890039443970e-02) (23, -4.47605878114700317383e-01) 
