FANN_FLO_2.1
num_layers=4
learning_rate=0.700000
connection_rate=1.000000
network_type=0
learning_momentum=0.000000
training_algorithm=1
train_error_function=1
train_stop_function=0
cascade_output_change_fraction=0.010000
quickprop_decay=-0.000100
quickprop_mu=1.750000
rprop_increase_factor=1.200000
rprop_decrease_factor=0.500000
rprop_delta_min=0.000000
rprop_delta_max=50.000000
rprop_delta_zero=0.100000
cascade_output_stagnation_epochs=12
cascade_candidate_change_fraction=0.010000
cascade_candidate_stagnation_epochs=12
cascade_max_out_epochs=150
cascade_min_out_epochs=50
cascade_max_cand_epochs=150
cascade_min_cand_epochs=50
cascade_num_candidate_groups=2
bit_fail_limit=3.49999994039535522461e-01
cascade_candidate_limit=1.00000000000000000000e+03
cascade_weight_multiplier=4.00000005960464477539e-01
cascade_activation_functions_count=10
cascade_activation_functions=3 5 7 8 10 11 14 15 16 17 
cascade_activation_steepnesses_count=4
cascade_activation_steepnesses=2.50000000000000000000e-01 5.00000000000000000000e-01 7.50000000000000000000e-01 1.00000000000000000000e+00 
layer_sizes=7 7 10 2 
scale_included=0
neurons (num_inputs, activation_function, activation_steepness)=(0, 0, 0.00000000000000000000e+00) (0, 0, 0.00000000000000000000e+00) (0, 0, 0.00000000000000000000e+00) (0, 0, 0.00000000000000000000e+00) (0, 0, 0.00000000000000000000e+00) (0, 0, 0.00000000000000000000e+00) (0, 0, 0.00000000000000000000e+00) (7, 5, 5.00000000000000000000e-01) (7, 5, 5.00000000000000000000e-01) (7, 5, 5.00000000000000000000e-01) (7, 5, 5.00000000000000000000e-01) (7, 5, 5.00000000000000000000e-01) (7, 5, 5.00000000000000000000e-01) (0, 0, 0.00000000000000000000e+00) (7, 5, 5.00000000000000000000e-01) (7, 5, 5.00000000000000000000e-01) (7, 5, 5.00000000000000000000e-01) (7, 5, 5.00000000000000000000e-01) (7, 5, 5.00000000000000000000e-01) (7, 5, 5.00000000000000000000e-01) (7, 5, 5.00000000000000000000e-01) (7, 5, 5.00000000000000000000e-01) (7, 5, 5.00000000000000000000e-01) (0, 0, 0.00000000000000000000e+00) (10, 5, 5.00000000000000000000e-01) (0, 0, 0.00000000000000000000e+00) 
connections (connected_to_neuron, weight)=(0, -1.06887392699718475342e-01) (1, 1.17812335491180419922e-01) (2, 6.01919256150722503662e-02) (3, -1.22851863503456115723e-01) (4, -9.71445515751838684082e-02) (5, -2.14884489774703979492e-01) (6, 5.60665801167488098145e-02) (0, 9.72722948063164949417e-04) (1, 2.14663684368133544922e-01) (2, 7.10736736655235290527e-02) (3, 1.07415519654750823975e-01) (4, 7.54582658410072326660e-02) (5, 2.19124704599380493164e-01) (6, 3.03383283317089080811e-02) (0, 4.04808610677719116211e-01) (1, -1.89022030681371688843e-02) (2, 2.70406395196914672852e-01) (3, 9.03573818504810333252e-03) (4, 4.74635332822799682617e-01) (5, 5.88358528912067413330e-02) (6, -1.40785938128829002380e-02) (0, -6.07282072305679321289e-02) (1, 3.70285846292972564697e-02) (2, -9.17469989508390426636e-03) (3, -1.40211924910545349121e-01) (4, -2.19809204339981079102e-01) (5, -2.45495349168777465820e-01) (6, -2.10251063108444213867e-02) (0, -1.48580670356750488281e-01) (1, -2.89898309856653213501e-02) (2, 1.35449409484863281250e-01) (3, -9.79498866945505142212e-03) (4, 1.01697981357574462891e-01) (5, -2.78164329938590526581e-03) (6, 6.20266748592257499695e-03) (0, 2.25663278251886367798e-03) (1, 2.27262958884239196777e-01) (2, 7.93446376919746398926e-02) (3, 1.42329111695289611816e-01) (4, 1.17737673223018646240e-01) (5, 1.26326009631156921387e-01) (6, -9.15939137339591979980e-02) (7, 1.34318143129348754883e-01) (8, -1.10106892883777618408e-01) (9, -6.65986686944961547852e-02) (10, -9.25597846508026123047e-02) (11, -1.58701196312904357910e-01) (12, -6.26539140939712524414e-02) (13, -3.49869243800640106201e-02) (7, -9.40686557441949844360e-03) (8, -9.57325845956802368164e-02) (9, -5.43859191238880157471e-02) (10, -1.31009044125676155090e-02) (11, -1.61512251943349838257e-02) (12, -7.08065554499626159668e-02) (13, 7.12401717901229858398e-02) (7, -2.21927896142005920410e-01) (8, 1.63519278168678283691e-01) (9, 3.13225895166397094727e-01) (10, 1.54761612415313720703e-01) (11, 7.47916623950004577637e-02) (12, 1.81897133588790893555e-01) (13, -1.22525297105312347412e-01) (7, -1.99877191334962844849e-02) (8, -4.62685106322169303894e-03) (9, -1.83207634836435317993e-02) (10, -7.69781740382313728333e-03) (11, 4.42565456032752990723e-02) (12, 9.68066900968551635742e-02) (13, 1.95831712335348129272e-02) (7, 1.59428343176841735840e-01) (8, -1.33215606212615966797e-01) (9, -2.15547218918800354004e-01) (10, -1.60623446106910705566e-01) (11, -2.09123820066452026367e-01) (12, -5.72193451225757598877e-02) (13, 7.46409967541694641113e-02) (7, 3.56448777019977569580e-02) (8, -1.05112463235855102539e-01) (9, -5.72591871023178100586e-02) (10, -8.14454481005668640137e-02) (11, -2.24674530327320098877e-02) (12, -3.00157759338617324829e-02) (13, 4.63551022112369537354e-02) (7, 1.13930761814117431641e-01) (8, -1.57591745257377624512e-01) (9, -2.10791006684303283691e-01) (10, -9.44686830043792724609e-02) (11, -1.79607987403869628906e-01) (12, -8.13992246985435485840e-02) (13, 1.11486062407493591309e-01) (7, -2.30164472013711929321e-02) (8, 9.21297818422317504883e-03) (9, 2.07239389419555664062e-01) (10, 1.46784260869026184082e-01) (11, 1.16494894027709960938e-01) (12, 1.02460674941539764404e-01) (13, -3.51952924393117427826e-03) (7, 3.01893404684960842133e-03) (8, 6.59689903259277343750e-02) (9, -1.99505537748336791992e-02) (10, -8.72205570340156555176e-02) (11, -7.44212642312049865723e-02) (12, -1.08348444104194641113e-01) (13, 1.02121472358703613281e-01) (14, -2.36069470643997192383e-01) (15, -1.06926605105400085449e-01) (16, 4.72342789173126220703e-01) (17, 4.64924462139606475830e-02) (18, -4.04835462570190429688e-01) (19, -1.03292226791381835938e-01) (20, -3.53627681732177734375e-01) (21, 2.64752209186553955078e-01) (22, -9.14925783872604370117e-02) (23, -1.78476214408874511719e-01) 
