FANN_FLO_2.1
num_layers=4
learning_rate=0.010000
connection_rate=1.000000
network_type=0
learning_momentum=0.000000
training_algorithm=1
train_error_function=1
train_stop_function=0
cascade_output_change_fraction=0.010000
quickprop_decay=-0.000100
quickprop_mu=1.750000
rprop_increase_factor=1.200000
rprop_decrease_factor=0.500000
rprop_delta_min=0.000000
rprop_delta_max=50.000000
rprop_delta_zero=0.100000
cascade_output_stagnation_epochs=12
cascade_candidate_change_fraction=0.010000
cascade_candidate_stagnation_epochs=12
cascade_max_out_epochs=150
cascade_min_out_epochs=50
cascade_max_cand_epochs=150
cascade_min_cand_epochs=50
cascade_num_candidate_groups=2
bit_fail_limit=3.49999994039535522461e-01
cascade_candidate_limit=1.00000000000000000000e+03
cascade_weight_multiplier=4.00000005960464477539e-01
cascade_activation_functions_count=10
cascade_activation_functions=3 5 7 8 10 11 14 15 16 17 
cascade_activation_steepnesses_count=4
cascade_activation_steepnesses=2.50000000000000000000e-01 5.00000000000000000000e-01 7.50000000000000000000e-01 1.00000000000000000000e+00 
layer_sizes=7 7 10 2 
scale_included=0
neurons (num_inputs, activation_function, activation_steepness)=(0, 0, 0.00000000000000000000e+00) (0, 0, 0.00000000000000000000e+00) (0, 0, 0.00000000000000000000e+00) (0, 0, 0.00000000000000000000e+00) (0, 0, 0.00000000000000000000e+00) (0, 0, 0.00000000000000000000e+00) (0, 0, 0.00000000000000000000e+00) (7, 5, 5.00000000000000000000e-01) (7, 5, 5.00000000000000000000e-01) (7, 5, 5.00000000000000000000e-01) (7, 5, 5.00000000000000000000e-01) (7, 5, 5.00000000000000000000e-01) (7, 5, 5.00000000000000000000e-01) (0, 0, 0.00000000000000000000e+00) (7, 5, 5.00000000000000000000e-01) (7, 5, 5.00000000000000000000e-01) (7, 5, 5.00000000000000000000e-01) (7, 5, 5.00000000000000000000e-01) (7, 5, 5.00000000000000000000e-01) (7, 5, 5.00000000000000000000e-01) (7, 5, 5.00000000000000000000e-01) (7, 5, 5.00000000000000000000e-01) (7, 5, 5.00000000000000000000e-01) (0, 0, 0.00000000000000000000e+00) (10, 5, 5.00000000000000000000e-01) (0, 0, 0.00000000000000000000e+00) 
connections (connected_to_neuron, weight)=(0, -7.75525093078613281250e-01) (1, 1.41348063945770263672e-01) (2, -1.11484277248382568359e+00) (3, 1.00606071949005126953e+00) (4, -1.96450388431549072266e+00) (5, 1.34902262687683105469e+00) (6, -3.89035075902938842773e-01) (0, 2.81801342964172363281e+00) (1, 5.90430450439453125000e+00) (2, 1.26412391662597656250e-01) (3, 4.11348044872283935547e-01) (4, 1.20474159717559814453e+00) (5, 1.06126928329467773438e+00) (6, 9.88681316375732421875e-02) (0, -2.95862793922424316406e-01) (1, -6.88251078128814697266e-01) (2, -5.21681755781173706055e-02) (3, -4.10082051530480384827e-03) (4, -2.86051452159881591797e-01) (5, -1.58929139375686645508e-01) (6, 3.14176715910434722900e-02) (0, -2.22623392939567565918e-01) (1, -2.56452560424804687500e-01) (2, -6.95609033107757568359e-01) (3, -3.18671673536300659180e-01) (4, -8.29842686653137207031e-01) (5, -5.39637804031372070312e-01) (6, 4.78681951761245727539e-01) (0, -9.38250184059143066406e-01) (1, 3.76275449991226196289e-01) (2, -9.15166974067687988281e-01) (3, -9.11889016628265380859e-01) (4, -1.37395656108856201172e+00) (5, -3.46957445144653320312e-01) (6, 6.75628304481506347656e-01) (0, 9.84243273735046386719e-01) (1, -1.39005029201507568359e+00) (2, -3.15744094550609588623e-02) (3, 3.37089598178863525391e-01) (4, 2.71640717983245849609e-01) (5, -2.50983953475952148438e-01) (6, 1.46478284150362014771e-02) (7, -3.87061029672622680664e-01) (8, -2.95998901128768920898e-01) (9, -2.59905047714710235596e-02) (10, -7.68189787864685058594e-01) (11, 1.75086911767721176147e-02) (12, -5.25641851127147674561e-02) (13, -7.84874781966209411621e-02) (7, -1.73004284501075744629e-01) (8, -3.13314318656921386719e-01) (9, 8.58828872442245483398e-02) (10, -4.01484221220016479492e-01) (11, 1.54634222388267517090e-01) (12, 2.03300371766090393066e-01) (13, 9.60087254643440246582e-02) (7, 4.34998050332069396973e-02) (8, 1.94419816136360168457e-01) (9, 5.56548908352851867676e-02) (10, 1.37450173497200012207e-01) (11, -6.36865347623825073242e-02) (12, -5.26638254523277282715e-02) (13, -5.06953746080398559570e-02) (7, -1.60390958189964294434e-01) (8, -2.93399959802627563477e-01) (9, -7.33179599046707153320e-02) (10, -2.99047440290451049805e-01) (11, 2.06161424517631530762e-01) (12, 1.06804892420768737793e-01) (13, 5.13767590746283531189e-03) (7, 1.80530965328216552734e-01) (8, 2.41081953048706054688e-01) (9, -4.56258058547973632812e-02) (10, 4.10102128982543945312e-01) (11, -1.10076300799846649170e-01) (12, 8.78183171153068542480e-03) (13, 3.71775366365909576416e-02) (7, -1.88222482800483703613e-01) (8, -2.25336194038391113281e-01) (9, 8.21919068694114685059e-02) (10, -3.47370445728302001953e-01) (11, 1.33345395326614379883e-01) (12, 1.36131763458251953125e-01) (13, 2.06886809319257736206e-02) (7, -1.76476627588272094727e-01) (8, -1.73107430338859558105e-01) (9, -6.29096627235412597656e-02) (10, -3.42455208301544189453e-01) (11, 1.72976315021514892578e-01) (12, 1.73667326569557189941e-01) (13, -2.03586947172880172729e-02) (7, -4.99316938221454620361e-02) (8, -7.12520331144332885742e-02) (9, 1.97579432278871536255e-02) (10, -1.43221067264676094055e-02) (11, 1.14820495247840881348e-01) (12, -1.70704238116741180420e-02) (13, -2.94514093548059463501e-02) (7, -5.59286354109644889832e-03) (8, 4.38966676592826843262e-02) (9, 7.45522826910018920898e-02) (10, 2.98891980201005935669e-02) (11, -5.38675971329212188721e-02) (12, 6.53022825717926025391e-02) (13, 7.48706385493278503418e-02) (14, 4.46588069200515747070e-01) (15, 2.28527203202247619629e-01) (16, -8.90947356820106506348e-02) (17, 1.58466726541519165039e-01) (18, -2.35477611422538757324e-01) (19, 1.83202937245368957520e-01) (20, 1.59536004066467285156e-01) (21, -7.03710457310080528259e-03) (22, -1.45960832014679908752e-02) (23, -4.42414343357086181641e-01) 
