FANN_FLO_2.1
num_layers=4
learning_rate=0.700000
connection_rate=1.000000
network_type=0
learning_momentum=0.000000
training_algorithm=1
train_error_function=1
train_stop_function=0
cascade_output_change_fraction=0.010000
quickprop_decay=-0.000100
quickprop_mu=1.750000
rprop_increase_factor=1.200000
rprop_decrease_factor=0.500000
rprop_delta_min=0.000000
rprop_delta_max=50.000000
rprop_delta_zero=0.100000
cascade_output_stagnation_epochs=12
cascade_candidate_change_fraction=0.010000
cascade_candidate_stagnation_epochs=12
cascade_max_out_epochs=150
cascade_min_out_epochs=50
cascade_max_cand_epochs=150
cascade_min_cand_epochs=50
cascade_num_candidate_groups=2
bit_fail_limit=3.49999994039535522461e-01
cascade_candidate_limit=1.00000000000000000000e+03
cascade_weight_multiplier=4.00000005960464477539e-01
cascade_activation_functions_count=10
cascade_activation_functions=3 5 7 8 10 11 14 15 16 17 
cascade_activation_steepnesses_count=4
cascade_activation_steepnesses=2.50000000000000000000e-01 5.00000000000000000000e-01 7.50000000000000000000e-01 1.00000000000000000000e+00 
layer_sizes=7 7 10 2 
scale_included=0
neurons (num_inputs, activation_function, activation_steepness)=(0, 0, 0.00000000000000000000e+00) (0, 0, 0.00000000000000000000e+00) (0, 0, 0.00000000000000000000e+00) (0, 0, 0.00000000000000000000e+00) (0, 0, 0.00000000000000000000e+00) (0, 0, 0.00000000000000000000e+00) (0, 0, 0.00000000000000000000e+00) (7, 5, 5.00000000000000000000e-01) (7, 5, 5.00000000000000000000e-01) (7, 5, 5.00000000000000000000e-01) (7, 5, 5.00000000000000000000e-01) (7, 5, 5.00000000000000000000e-01) (7, 5, 5.00000000000000000000e-01) (0, 0, 0.00000000000000000000e+00) (7, 5, 5.00000000000000000000e-01) (7, 5, 5.00000000000000000000e-01) (7, 5, 5.00000000000000000000e-01) (7, 5, 5.00000000000000000000e-01) (7, 5, 5.00000000000000000000e-01) (7, 5, 5.00000000000000000000e-01) (7, 5, 5.00000000000000000000e-01) (7, 5, 5.00000000000000000000e-01) (7, 5, 5.00000000000000000000e-01) (0, 0, 0.00000000000000000000e+00) (10, 5, 5.00000000000000000000e-01) (0, 0, 0.00000000000000000000e+00) 
connections (connected_to_neuron, weight)=(0, -6.64900600910186767578e-01) (1, 5.67486919462680816650e-02) (2, -1.08289361000061035156e+00) (3, 3.00986729562282562256e-02) (4, -1.06530106067657470703e+00) (5, -2.31486290693283081055e-01) (6, 1.11563406884670257568e-01) (0, 9.57109093666076660156e-01) (1, 2.03735566139221191406e+00) (2, -1.10195726156234741211e-02) (3, 2.61902570724487304688e-01) (4, 4.09703075885772705078e-01) (5, 7.22225129604339599609e-01) (6, 1.72119140625000000000e-01) (0, -3.04742038249969482422e-01) (1, 1.73523481935262680054e-02) (2, -8.28256309032440185547e-02) (3, -3.19801956415176391602e-01) (4, -7.55920410156250000000e-01) (5, -9.10982310771942138672e-01) (6, 2.71460562944412231445e-01) (0, -2.90287882089614868164e-01) (1, -1.20029464364051818848e-01) (2, -2.55957067012786865234e-01) (3, -1.87854886054992675781e-01) (4, -3.80651533603668212891e-01) (5, -4.00493115186691284180e-01) (6, 7.25705921649932861328e-02) (0, -3.29027861356735229492e-01) (1, -3.53782027959823608398e-02) (2, -3.09063792228698730469e-01) (3, -1.56326651573181152344e-01) (4, -4.71809685230255126953e-01) (5, -5.82191050052642822266e-01) (6, -1.10369855538010597229e-02) (0, 4.66850325465202331543e-02) (1, -5.73289275169372558594e-01) (2, 5.92539943754673004150e-02) (3, -2.80369430780410766602e-01) (4, -9.55204665660858154297e-02) (5, -1.17216300964355468750e+00) (6, 2.56247550249099731445e-01) (7, -5.04769444465637207031e-01) (8, -3.39236348867416381836e-01) (9, -6.73768818378448486328e-02) (10, -1.83405354619026184082e-01) (11, -3.04216116666793823242e-01) (12, -6.54115378856658935547e-01) (13, -2.24487692117691040039e-01) (7, -2.08233475685119628906e-01) (8, -2.82026588916778564453e-01) (9, 1.70716032385826110840e-01) (10, -2.90377866476774215698e-02) (11, -2.35559903085231781006e-02) (12, -1.63422778248786926270e-01) (13, 2.83588953316211700439e-02) (7, 7.58785828948020935059e-02) (8, 1.78123041987419128418e-01) (9, 3.64437364041805267334e-02) (10, -1.05747045017778873444e-03) (11, 3.98290567100048065186e-02) (12, 1.30432218313217163086e-01) (13, -3.26661095023155212402e-02) (7, -1.94582983851432800293e-01) (8, -2.75961250066757202148e-01) (9, -2.42221076041460037231e-02) (10, -1.00969243794679641724e-02) (11, -6.52437610551714897156e-03) (12, -2.90007263422012329102e-01) (13, -4.90998700261116027832e-02) (7, 2.99033373594284057617e-01) (8, 2.30137184262275695801e-01) (9, -4.39514108002185821533e-02) (10, 7.13496133685111999512e-02) (11, 1.45397856831550598145e-01) (12, 4.03916031122207641602e-01) (13, 1.07173711061477661133e-01) (7, -2.42820948362350463867e-01) (8, -2.06916183233261108398e-01) (9, 1.38346523046493530273e-01) (10, -4.24653589725494384766e-02) (11, -3.10244280844926834106e-02) (12, -1.78014427423477172852e-01) (13, -3.02035361528396606445e-02) (7, -2.12886899709701538086e-01) (8, -1.65008053183555603027e-01) (9, -4.53177914023399353027e-02) (10, -1.19714990258216857910e-01) (11, 1.89089402556419372559e-02) (12, -1.50361880660057067871e-01) (13, -2.56239715963602066040e-02) (7, -2.93758884072303771973e-02) (8, -6.83109983801841735840e-02) (9, 5.15202470123767852783e-02) (10, 4.59841787815093994141e-02) (11, 6.63667097687721252441e-02) (12, -1.18681825697422027588e-01) (13, -6.31845593452453613281e-02) (7, 1.17166042327880859375e-02) (8, 5.54349459707736968994e-02) (9, 6.77368193864822387695e-02) (10, 1.73294823616743087769e-02) (11, -5.06598595529794692993e-03) (12, 1.34224936366081237793e-01) (13, 8.22693556547164916992e-02) (14, 8.00259590148925781250e-01) (15, 3.04227083921432495117e-01) (16, -1.83834597468376159668e-01) (17, 3.79493623971939086914e-01) (18, -5.00213682651519775391e-01) (19, 3.02689462900161743164e-01) (20, 2.51702308654785156250e-01) (21, 9.81176868081092834473e-02) (22, -1.06218948960304260254e-01) (23, -7.34067142009735107422e-01) 
