FANN_FLO_2.1
num_layers=4
learning_rate=0.700000
connection_rate=1.000000
network_type=0
learning_momentum=0.000000
training_algorithm=1
train_error_function=1
train_stop_function=0
cascade_output_change_fraction=0.010000
quickprop_decay=-0.000100
quickprop_mu=1.750000
rprop_increase_factor=1.200000
rprop_decrease_factor=0.500000
rprop_delta_min=0.000000
rprop_delta_max=50.000000
rprop_delta_zero=0.100000
cascade_output_stagnation_epochs=12
cascade_candidate_change_fraction=0.010000
cascade_candidate_stagnation_epochs=12
cascade_max_out_epochs=150
cascade_min_out_epochs=50
cascade_max_cand_epochs=150
cascade_min_cand_epochs=50
cascade_num_candidate_groups=2
bit_fail_limit=3.49999994039535522461e-01
cascade_candidate_limit=1.00000000000000000000e+03
cascade_weight_multiplier=4.00000005960464477539e-01
cascade_activation_functions_count=10
cascade_activation_functions=3 5 7 8 10 11 14 15 16 17 
cascade_activation_steepnesses_count=4
cascade_activation_steepnesses=2.50000000000000000000e-01 5.00000000000000000000e-01 7.50000000000000000000e-01 1.00000000000000000000e+00 
layer_sizes=7 7 10 2 
scale_included=0
neurons (num_inputs, activation_function, activation_steepness)=(0, 0, 0.00000000000000000000e+00) (0, 0, 0.00000000000000000000e+00) (0, 0, 0.00000000000000000000e+00) (0, 0, 0.00000000000000000000e+00) (0, 0, 0.00000000000000000000e+00) (0, 0, 0.00000000000000000000e+00) (0, 0, 0.00000000000000000000e+00) (7, 5, 5.00000000000000000000e-01) (7, 5, 5.00000000000000000000e-01) (7, 5, 5.00000000000000000000e-01) (7, 5, 5.00000000000000000000e-01) (7, 5, 5.00000000000000000000e-01) (7, 5, 5.00000000000000000000e-01) (0, 0, 0.00000000000000000000e+00) (7, 5, 5.00000000000000000000e-01) (7, 5, 5.00000000000000000000e-01) (7, 5, 5.00000000000000000000e-01) (7, 5, 5.00000000000000000000e-01) (7, 5, 5.00000000000000000000e-01) (7, 5, 5.00000000000000000000e-01) (7, 5, 5.00000000000000000000e-01) (7, 5, 5.00000000000000000000e-01) (7, 5, 5.00000000000000000000e-01) (0, 0, 0.00000000000000000000e+00) (10, 5, 5.00000000000000000000e-01) (0, 0, 0.00000000000000000000e+00) 
connections (connected_to_neuron, weight)=(0, 3.58095049858093261719e-01) (1, 1.57993233203887939453e+00) (2, 3.56350056827068328857e-02) (3, -4.13121014833450317383e-01) (4, -4.76518869400024414062e-01) (5, -2.35908240079879760742e-01) (6, 2.55975276231765747070e-02) (0, 8.32583725452423095703e-01) (1, 1.42524933815002441406e+00) (2, 6.24704211950302124023e-02) (3, 4.68516945838928222656e-02) (4, 3.08420300483703613281e-01) (5, 5.36005020141601562500e-01) (6, 1.56761944293975830078e-01) (0, -2.54250224679708480835e-02) (1, -2.78412729501724243164e-01) (2, -2.67306417226791381836e-01) (3, -3.18828701972961425781e-01) (4, -3.07482391595840454102e-01) (5, -9.46143209934234619141e-01) (6, 2.07292705774307250977e-01) (0, -1.74749091267585754395e-01) (1, -4.73200455307960510254e-02) (2, -6.01547658443450927734e-01) (3, -1.67810380458831787109e-01) (4, -1.19663858413696289062e+00) (5, -6.07236921787261962891e-01) (6, 1.95676460862159729004e-01) (0, 4.79840159416198730469e-01) (1, -4.25953231751918792725e-02) (2, 8.95665466785430908203e-01) (3, -3.01282927393913269043e-02) (4, 1.24806284904479980469e+00) (5, 8.12209546566009521484e-02) (6, -6.38522878289222717285e-02) (0, -1.79569539614021778107e-03) (1, -3.29558372497558593750e-01) (2, 2.50528715550899505615e-02) (3, -2.91717737913131713867e-01) (4, -3.46108347177505493164e-01) (5, -9.00891870260238647461e-02) (6, 1.29495099186897277832e-01) (7, -3.26896995306015014648e-01) (8, -2.08778113126754760742e-01) (9, -3.46788734197616577148e-01) (10, 7.46650323271751403809e-02) (11, 2.15443149209022521973e-01) (12, -2.49410644173622131348e-01) (13, -9.61493030190467834473e-02) (7, -1.90731391310691833496e-01) (8, -2.07242116332054138184e-01) (9, -1.66743203997611999512e-01) (10, 1.22629724442958831787e-01) (11, 3.09424996376037597656e-01) (12, -4.93256300687789916992e-02) (13, 7.59304016828536987305e-02) (7, 1.38113215565681457520e-01) (8, 1.49118214845657348633e-01) (9, 3.04043203592300415039e-01) (10, -8.92530307173728942871e-02) (11, -1.96546927094459533691e-01) (12, 8.98593217134475708008e-02) (13, -5.06302826106548309326e-02) (7, -3.22935521602630615234e-01) (8, -2.28758245706558227539e-01) (9, -5.68623125553131103516e-01) (10, 1.33173033595085144043e-01) (11, 4.72799092531204223633e-01) (12, -2.29473769664764404297e-01) (13, -1.87874305993318557739e-02) (7, 2.25968390703201293945e-01) (8, 1.51231929659843444824e-01) (9, 2.29786589741706848145e-01) (10, -7.22827985882759094238e-02) (11, -1.74338877201080322266e-01) (12, 1.97317257523536682129e-01) (13, 2.41502299904823303223e-02) (7, -1.80938303470611572266e-01) (8, -1.36847749352455139160e-01) (9, -6.88217952847480773926e-02) (10, 4.56896573305130004883e-02) (11, 1.73348546028137207031e-01) (12, -4.31997217237949371338e-02) (13, 2.30366941541433334351e-02) (7, -2.02715486288070678711e-01) (8, -9.77817475795745849609e-02) (9, -2.46366396546363830566e-01) (10, -7.22064301371574401855e-02) (11, 1.85525953769683837891e-01) (12, -4.93466183543205261230e-02) (13, 1.08844619244337081909e-02) (7, -1.17302492260932922363e-01) (8, -8.11492875218391418457e-02) (9, -1.22782617807388305664e-01) (10, 8.87376740574836730957e-02) (11, 2.03466758131980895996e-01) (12, -1.23862005770206451416e-01) (13, -6.59226700663566589355e-02) (7, 5.61180301010608673096e-02) (8, 5.79120144248008728027e-02) (9, 1.59065634012222290039e-01) (10, 1.35372010990977287292e-02) (11, -5.78187331557273864746e-02) (12, 1.14112943410873413086e-01) (13, 7.40268230438232421875e-02) (14, 5.49997389316558837891e-01) (15, 3.70519787073135375977e-01) (16, -3.79865944385528564453e-01) (17, 7.71444320678710937500e-01) (18, -3.98385018110275268555e-01) (19, 2.28576034307479858398e-01) (20, 3.33822816610336303711e-01) (21, 2.49598339200019836426e-01) (22, -1.71211481094360351562e-01) (23, -4.10646647214889526367e-01) 
